digraph Tree {
node [shape=box] ;
0 [label="TotalWorkingYears <= 1.5\ngini = 0.266\nsamples = 3087\nvalue = [2599, 488]"] ;
1 [label="Age <= 33.5\ngini = 0.5\nsamples = 198\nvalue = [99, 99]"] ;
0 -> 1 [labeldistance=2.5, labelangle=45, headlabel="True"] ;
2 [label="MonthlyIncome <= 112610.0\ngini = 0.49\nsamples = 170\nvalue = [73, 97]"] ;
1 -> 2 ;
3 [label="MonthlyIncome <= 23140.0\ngini = 0.466\nsamples = 146\nvalue = [54, 92]"] ;
2 -> 3 ;
4 [label="PercentSalaryHike <= 12.5\ngini = 0.305\nsamples = 16\nvalue = [13, 3]"] ;
3 -> 4 ;
5 [label="MonthlyIncome <= 16195.0\ngini = 0.48\nsamples = 5\nvalue = [2, 3]"] ;
4 -> 5 ;
6 [label="gini = 0.0\nsamples = 2\nvalue = [2, 0]"] ;
5 -> 6 ;
7 [label="gini = 0.0\nsamples = 3\nvalue = [0, 3]"] ;
5 -> 7 ;
8 [label="gini = 0.0\nsamples = 11\nvalue = [11, 0]"] ;
4 -> 8 ;
9 [label="Age <= 23.5\ngini = 0.432\nsamples = 130\nvalue = [41, 89]"] ;
3 -> 9 ;
10 [label="JobRole <= 6.5\ngini = 0.241\nsamples = 57\nvalue = [8, 49]"] ;
9 -> 10 ;
11 [label="Age <= 18.5\ngini = 0.095\nsamples = 40\nvalue = [2, 38]"] ;
10 -> 11 ;
12 [label="DistanceFromHome <= 4.0\ngini = 0.444\nsamples = 6\nvalue = [2, 4]"] ;
11 -> 12 ;
13 [label="gini = 0.0\nsamples = 4\nvalue = [0, 4]"] ;
12 -> 13 ;
14 [label="gini = 0.0\nsamples = 2\nvalue = [2, 0]"] ;
12 -> 14 ;
15 [label="gini = 0.0\nsamples = 34\nvalue = [0, 34]"] ;
11 -> 15 ;
16 [label="MonthlyIncome <= 106255.0\ngini = 0.457\nsamples = 17\nvalue = [6, 11]"] ;
10 -> 16 ;
17 [label="PercentSalaryHike <= 20.0\ngini = 0.337\nsamples = 14\nvalue = [3, 11]"] ;
16 -> 17 ;
18 [label="gini = 0.0\nsamples = 9\nvalue = [0, 9]"] ;
17 -> 18 ;
19 [label="NumCompaniesWorked <= 0.5\ngini = 0.48\nsamples = 5\nvalue = [3, 2]"] ;
17 -> 19 ;
20 [label="gini = 0.0\nsamples = 2\nvalue = [0, 2]"] ;
19 -> 20 ;
21 [label="gini = 0.0\nsamples = 3\nvalue = [3, 0]"] ;
19 -> 21 ;
22 [label="gini = 0.0\nsamples = 3\nvalue = [3, 0]"] ;
16 -> 22 ;
23 [label="MonthlyIncome <= 32530.0\ngini = 0.495\nsamples = 73\nvalue = [33, 40]"] ;
9 -> 23 ;
24 [label="PercentSalaryHike <= 22.0\ngini = 0.278\nsamples = 24\nvalue = [4, 20]"] ;
23 -> 24 ;
25 [label="YearsAtCompany <= 0.5\ngini = 0.091\nsamples = 21\nvalue = [1, 20]"] ;
24 -> 25 ;
26 [label="gini = 0.0\nsamples = 1\nvalue = [1, 0]"] ;
25 -> 26 ;
27 [label="gini = 0.0\nsamples = 20\nvalue = [0, 20]"] ;
25 -> 27 ;
28 [label="gini = 0.0\nsamples = 3\nvalue = [3, 0]"] ;
24 -> 28 ;
29 [label="DistanceFromHome <= 7.0\ngini = 0.483\nsamples = 49\nvalue = [29, 20]"] ;
23 -> 29 ;
30 [label="MonthlyIncome <= 94195.0\ngini = 0.266\nsamples = 19\nvalue = [16, 3]"] ;
29 -> 30 ;
31 [label="gini = 0.0\nsamples = 15\nvalue = [15, 0]"] ;
30 -> 31 ;
32 [label="JobRole <= 6.5\ngini = 0.375\nsamples = 4\nvalue = [1, 3]"] ;
30 -> 32 ;
33 [label="gini = 0.0\nsamples = 3\nvalue = [0, 3]"] ;
32 -> 33 ;
34 [label="gini = 0.0\nsamples = 1\nvalue = [1, 0]"] ;
32 -> 34 ;
35 [label="MonthlyIncome <= 74735.0\ngini = 0.491\nsamples = 30\nvalue = [13, 17]"] ;
29 -> 35 ;
36 [label="Age <= 28.5\ngini = 0.497\nsamples = 24\nvalue = [13, 11]"] ;
35 -> 36 ;
37 [label="MonthlyIncome <= 43980.0\ngini = 0.26\nsamples = 13\nvalue = [11, 2]"] ;
36 -> 37 ;
38 [label="gini = 0.0\nsamples = 2\nvalue = [0, 2]"] ;
37 -> 38 ;
39 [label="gini = 0.0\nsamples = 11\nvalue = [11, 0]"] ;
37 -> 39 ;
40 [label="PercentSalaryHike <= 11.5\ngini = 0.298\nsamples = 11\nvalue = [2, 9]"] ;
36 -> 40 ;
41 [label="gini = 0.0\nsamples = 2\nvalue = [2, 0]"] ;
40 -> 41 ;
42 [label="gini = 0.0\nsamples = 9\nvalue = [0, 9]"] ;
40 -> 42 ;
43 [label="gini = 0.0\nsamples = 6\nvalue = [0, 6]"] ;
35 -> 43 ;
44 [label="DistanceFromHome <= 5.0\ngini = 0.33\nsamples = 24\nvalue = [19, 5]"] ;
2 -> 44 ;
45 [label="gini = 0.0\nsamples = 14\nvalue = [14, 0]"] ;
44 -> 45 ;
46 [label="JobRole <= 4.0\ngini = 0.5\nsamples = 10\nvalue = [5, 5]"] ;
44 -> 46 ;
47 [label="gini = 0.0\nsamples = 5\nvalue = [5, 0]"] ;
46 -> 47 ;
48 [label="gini = 0.0\nsamples = 5\nvalue = [0, 5]"] ;
46 -> 48 ;
49 [label="MonthlyIncome <= 25425.0\ngini = 0.133\nsamples = 28\nvalue = [26, 2]"] ;
1 -> 49 ;
50 [label="JobRole <= 6.5\ngini = 0.444\nsamples = 3\nvalue = [1, 2]"] ;
49 -> 50 ;
51 [label="gini = 0.0\nsamples = 2\nvalue = [0, 2]"] ;
50 -> 51 ;
52 [label="gini = 0.0\nsamples = 1\nvalue = [1, 0]"] ;
50 -> 52 ;
53 [label="gini = 0.0\nsamples = 25\nvalue = [25, 0]"] ;
49 -> 53 ;
54 [label="NumCompaniesWorked <= 4.5\ngini = 0.233\nsamples = 2889\nvalue = [2500, 389]"] ;
0 -> 54 [labeldistance=2.5, labelangle=-45, headlabel="False"] ;
55 [label="YearsWithCurrManager <= 0.5\ngini = 0.198\nsamples = 2260\nvalue = [2008, 252]"] ;
54 -> 55 ;
56 [label="TotalWorkingYears <= 5.5\ngini = 0.346\nsamples = 243\nvalue = [189, 54]"] ;
55 -> 56 ;
57 [label="MonthlyIncome <= 137095.0\ngini = 0.479\nsamples = 58\nvalue = [35, 23]"] ;
56 -> 57 ;
58 [label="DistanceFromHome <= 17.5\ngini = 0.431\nsamples = 51\nvalue = [35, 16]"] ;
57 -> 58 ;
59 [label="Age <= 32.5\ngini = 0.346\nsamples = 45\nvalue = [35, 10]"] ;
58 -> 59 ;
60 [label="Age <= 27.0\ngini = 0.488\nsamples = 19\nvalue = [11, 8]"] ;
59 -> 60 ;
61 [label="JobRole <= 5.0\ngini = 0.337\nsamples = 14\nvalue = [11, 3]"] ;
60 -> 61 ;
62 [label="gini = 0.0\nsamples = 11\nvalue = [11, 0]"] ;
61 -> 62 ;
63 [label="gini = 0.0\nsamples = 3\nvalue = [0, 3]"] ;
61 -> 63 ;
64 [label="gini = 0.0\nsamples = 5\nvalue = [0, 5]"] ;
60 -> 64 ;
65 [label="MonthlyIncome <= 26500.0\ngini = 0.142\nsamples = 26\nvalue = [24, 2]"] ;
59 -> 65 ;
66 [label="PercentSalaryHike <= 16.5\ngini = 0.444\nsamples = 3\nvalue = [1, 2]"] ;
65 -> 66 ;
67 [label="gini = 0.0\nsamples = 1\nvalue = [1, 0]"] ;
66 -> 67 ;
68 [label="gini = 0.0\nsamples = 2\nvalue = [0, 2]"] ;
66 -> 68 ;
69 [label="gini = 0.0\nsamples = 23\nvalue = [23, 0]"] ;
65 -> 69 ;
70 [label="gini = 0.0\nsamples = 6\nvalue = [0, 6]"] ;
58 -> 70 ;
71 [label="gini = 0.0\nsamples = 7\nvalue = [0, 7]"] ;
57 -> 71 ;
72 [label="MonthlyIncome <= 35465.0\ngini = 0.279\nsamples = 185\nvalue = [154, 31]"] ;
56 -> 72 ;
73 [label="Age <= 28.5\ngini = 0.083\nsamples = 69\nvalue = [66, 3]"] ;
72 -> 73 ;
74 [label="gini = 0.0\nsamples = 1\nvalue = [0, 1]"] ;
73 -> 74 ;
75 [label="DistanceFromHome <= 22.5\ngini = 0.057\nsamples = 68\nvalue = [66, 2]"] ;
73 -> 75 ;
76 [label="gini = 0.0\nsamples = 62\nvalue = [62, 0]"] ;
75 -> 76 ;
77 [label="PercentSalaryHike <= 16.5\ngini = 0.444\nsamples = 6\nvalue = [4, 2]"] ;
75 -> 77 ;
78 [label="gini = 0.0\nsamples = 2\nvalue = [0, 2]"] ;
77 -> 78 ;
79 [label="gini = 0.0\nsamples = 4\nvalue = [4, 0]"] ;
77 -> 79 ;
80 [label="MonthlyIncome <= 43920.0\ngini = 0.366\nsamples = 116\nvalue = [88, 28]"] ;
72 -> 80 ;
81 [label="TotalWorkingYears <= 10.0\ngini = 0.499\nsamples = 21\nvalue = [10, 11]"] ;
80 -> 81 ;
82 [label="gini = 0.0\nsamples = 8\nvalue = [8, 0]"] ;
81 -> 82 ;
83 [label="Age <= 42.0\ngini = 0.26\nsamples = 13\nvalue = [2, 11]"] ;
81 -> 83 ;
84 [label="gini = 0.0\nsamples = 11\nvalue = [0, 11]"] ;
83 -> 84 ;
85 [label="gini = 0.0\nsamples = 2\nvalue = [2, 0]"] ;
83 -> 85 ;
86 [label="Age <= 26.5\ngini = 0.294\nsamples = 95\nvalue = [78, 17]"] ;
80 -> 86 ;
87 [label="gini = 0.0\nsamples = 2\nvalue = [0, 2]"] ;
86 -> 87 ;
88 [label="PercentSalaryHike <= 15.5\ngini = 0.271\nsamples = 93\nvalue = [78, 15]"] ;
86 -> 88 ;
89 [label="PercentSalaryHike <= 13.5\ngini = 0.361\nsamples = 55\nvalue = [42, 13]"] ;
88 -> 89 ;
90 [label="YearsAtCompany <= 4.0\ngini = 0.137\nsamples = 27\nvalue = [25, 2]"] ;
89 -> 90 ;
91 [label="gini = 0.0\nsamples = 22\nvalue = [22, 0]"] ;
90 -> 91 ;
92 [label="YearsAtCompany <= 7.0\ngini = 0.48\nsamples = 5\nvalue = [3, 2]"] ;
90 -> 92 ;
93 [label="gini = 0.0\nsamples = 2\nvalue = [0, 2]"] ;
92 -> 93 ;
94 [label="gini = 0.0\nsamples = 3\nvalue = [3, 0]"] ;
92 -> 94 ;
95 [label="NumCompaniesWorked <= 2.5\ngini = 0.477\nsamples = 28\nvalue = [17, 11]"] ;
89 -> 95 ;
96 [label="MonthlyIncome <= 124465.0\ngini = 0.208\nsamples = 17\nvalue = [15, 2]"] ;
95 -> 96 ;
97 [label="gini = 0.0\nsamples = 13\nvalue = [13, 0]"] ;
96 -> 97 ;
98 [label="JobRole <= 4.0\ngini = 0.5\nsamples = 4\nvalue = [2, 2]"] ;
96 -> 98 ;
99 [label="gini = 0.0\nsamples = 2\nvalue = [0, 2]"] ;
98 -> 99 ;
100 [label="gini = 0.0\nsamples = 2\nvalue = [2, 0]"] ;
98 -> 100 ;
101 [label="TotalWorkingYears <= 6.5\ngini = 0.298\nsamples = 11\nvalue = [2, 9]"] ;
95 -> 101 ;
102 [label="gini = 0.0\nsamples = 2\nvalue = [2, 0]"] ;
101 -> 102 ;
103 [label="gini = 0.0\nsamples = 9\nvalue = [0, 9]"] ;
101 -> 103 ;
104 [label="JobRole <= 0.5\ngini = 0.1\nsamples = 38\nvalue = [36, 2]"] ;
88 -> 104 ;
105 [label="MonthlyIncome <= 68955.0\ngini = 0.5\nsamples = 4\nvalue = [2, 2]"] ;
104 -> 105 ;
106 [label="gini = 0.0\nsamples = 2\nvalue = [2, 0]"] ;
105 -> 106 ;
107 [label="gini = 0.0\nsamples = 2\nvalue = [0, 2]"] ;
105 -> 107 ;
108 [label="gini = 0.0\nsamples = 34\nvalue = [34, 0]"] ;
104 -> 108 ;
109 [label="Age <= 33.5\ngini = 0.177\nsamples = 2017\nvalue = [1819, 198]"] ;
55 -> 109 ;
110 [label="DistanceFromHome <= 24.5\ngini = 0.243\nsamples = 805\nvalue = [691, 114]"] ;
109 -> 110 ;
111 [label="MonthlyIncome <= 197020.0\ngini = 0.224\nsamples = 748\nvalue = [652, 96]"] ;
110 -> 111 ;
112 [label="JobRole <= 6.5\ngini = 0.22\nsamples = 746\nvalue = [652, 94]"] ;
111 -> 112 ;
113 [label="YearsAtCompany <= 3.5\ngini = 0.177\nsamples = 520\nvalue = [469, 51]"] ;
112 -> 113 ;
114 [label="MonthlyIncome <= 24955.0\ngini = 0.301\nsamples = 103\nvalue = [84, 19]"] ;
113 -> 114 ;
115 [label="MonthlyIncome <= 21915.0\ngini = 0.497\nsamples = 13\nvalue = [7, 6]"] ;
114 -> 115 ;
116 [label="gini = 0.0\nsamples = 5\nvalue = [5, 0]"] ;
115 -> 116 ;
117 [label="PercentSalaryHike <= 22.0\ngini = 0.375\nsamples = 8\nvalue = [2, 6]"] ;
115 -> 117 ;
118 [label="gini = 0.0\nsamples = 6\nvalue = [0, 6]"] ;
117 -> 118 ;
119 [label="gini = 0.0\nsamples = 2\nvalue = [2, 0]"] ;
117 -> 119 ;
120 [label="PercentSalaryHike <= 14.5\ngini = 0.247\nsamples = 90\nvalue = [77, 13]"] ;
114 -> 120 ;
121 [label="JobRole <= 5.5\ngini = 0.357\nsamples = 56\nvalue = [43, 13]"] ;
120 -> 121 ;
122 [label="MonthlyIncome <= 115210.0\ngini = 0.24\nsamples = 43\nvalue = [37, 6]"] ;
121 -> 122 ;
123 [label="NumCompaniesWorked <= 3.5\ngini = 0.062\nsamples = 31\nvalue = [30, 1]"] ;
122 -> 123 ;
124 [label="gini = 0.0\nsamples = 28\nvalue = [28, 0]"] ;
123 -> 124 ;
125 [label="DistanceFromHome <= 14.0\ngini = 0.444\nsamples = 3\nvalue = [2, 1]"] ;
123 -> 125 ;
126 [label="gini = 0.0\nsamples = 1\nvalue = [0, 1]"] ;
125 -> 126 ;
127 [label="gini = 0.0\nsamples = 2\nvalue = [2, 0]"] ;
125 -> 127 ;
128 [label="DistanceFromHome <= 6.0\ngini = 0.486\nsamples = 12\nvalue = [7, 5]"] ;
122 -> 128 ;
129 [label="gini = 0.0\nsamples = 7\nvalue = [7, 0]"] ;
128 -> 129 ;
130 [label="gini = 0.0\nsamples = 5\nvalue = [0, 5]"] ;
128 -> 130 ;
131 [label="MonthlyIncome <= 52335.0\ngini = 0.497\nsamples = 13\nvalue = [6, 7]"] ;
121 -> 131 ;
132 [label="YearsAtCompany <= 2.5\ngini = 0.245\nsamples = 7\nvalue = [6, 1]"] ;
131 -> 132 ;
133 [label="MonthlyIncome <= 31505.0\ngini = 0.5\nsamples = 2\nvalue = [1, 1]"] ;
132 -> 133 ;
134 [label="gini = 0.0\nsamples = 1\nvalue = [1, 0]"] ;
133 -> 134 ;
135 [label="gini = 0.0\nsamples = 1\nvalue = [0, 1]"] ;
133 -> 135 ;
136 [label="gini = 0.0\nsamples = 5\nvalue = [5, 0]"] ;
132 -> 136 ;
137 [label="gini = 0.0\nsamples = 6\nvalue = [0, 6]"] ;
131 -> 137 ;
138 [label="gini = 0.0\nsamples = 34\nvalue = [34, 0]"] ;
120 -> 138 ;
139 [label="Age <= 26.5\ngini = 0.142\nsamples = 417\nvalue = [385, 32]"] ;
113 -> 139 ;
140 [label="YearsAtCompany <= 5.5\ngini = 0.231\nsamples = 90\nvalue = [78, 12]"] ;
139 -> 140 ;
141 [label="Age <= 23.5\ngini = 0.078\nsamples = 49\nvalue = [47, 2]"] ;
140 -> 141 ;
142 [label="JobRole <= 2.5\ngini = 0.26\nsamples = 13\nvalue = [11, 2]"] ;
141 -> 142 ;
143 [label="YearsAtCompany <= 4.5\ngini = 0.5\nsamples = 4\nvalue = [2, 2]"] ;
142 -> 143 ;
144 [label="gini = 0.0\nsamples = 2\nvalue = [2, 0]"] ;
143 -> 144 ;
145 [label="gini = 0.0\nsamples = 2\nvalue = [0, 2]"] ;
143 -> 145 ;
146 [label="gini = 0.0\nsamples = 9\nvalue = [9, 0]"] ;
142 -> 146 ;
147 [label="gini = 0.0\nsamples = 36\nvalue = [36, 0]"] ;
141 -> 147 ;
148 [label="YearsWithCurrManager <= 4.5\ngini = 0.369\nsamples = 41\nvalue = [31, 10]"] ;
140 -> 148 ;
149 [label="JobRole <= 5.5\ngini = 0.473\nsamples = 26\nvalue = [16, 10]"] ;
148 -> 149 ;
150 [label="DistanceFromHome <= 4.5\ngini = 0.42\nsamples = 10\nvalue = [3, 7]"] ;
149 -> 150 ;
151 [label="gini = 0.0\nsamples = 3\nvalue = [3, 0]"] ;
150 -> 151 ;
152 [label="gini = 0.0\nsamples = 7\nvalue = [0, 7]"] ;
150 -> 152 ;
153 [label="PercentSalaryHike <= 20.5\ngini = 0.305\nsamples = 16\nvalue = [13, 3]"] ;
149 -> 153 ;
154 [label="gini = 0.0\nsamples = 11\nvalue = [11, 0]"] ;
153 -> 154 ;
155 [label="PercentSalaryHike <= 21.5\ngini = 0.48\nsamples = 5\nvalue = [2, 3]"] ;
153 -> 155 ;
156 [label="gini = 0.0\nsamples = 3\nvalue = [0, 3]"] ;
155 -> 156 ;
157 [label="gini = 0.0\nsamples = 2\nvalue = [2, 0]"] ;
155 -> 157 ;
158 [label="gini = 0.0\nsamples = 15\nvalue = [15, 0]"] ;
148 -> 158 ;
159 [label="JobRole <= 2.5\ngini = 0.115\nsamples = 327\nvalue = [307, 20]"] ;
139 -> 159 ;
160 [label="YearsAtCompany <= 13.5\ngini = 0.19\nsamples = 141\nvalue = [126, 15]"] ;
159 -> 160 ;
161 [label="MonthlyIncome <= 190350.0\ngini = 0.159\nsamples = 138\nvalue = [126, 12]"] ;
160 -> 161 ;
162 [label="TotalWorkingYears <= 6.5\ngini = 0.136\nsamples = 136\nvalue = [126, 10]"] ;
161 -> 162 ;
163 [label="gini = 0.0\nsamples = 50\nvalue = [50, 0]"] ;
162 -> 163 ;
164 [label="YearsWithCurrManager <= 1.5\ngini = 0.206\nsamples = 86\nvalue = [76, 10]"] ;
162 -> 164 ;
165 [label="YearsAtCompany <= 7.0\ngini = 0.444\nsamples = 3\nvalue = [1, 2]"] ;
164 -> 165 ;
166 [label="gini = 0.0\nsamples = 2\nvalue = [0, 2]"] ;
165 -> 166 ;
167 [label="gini = 0.0\nsamples = 1\nvalue = [1, 0]"] ;
165 -> 167 ;
168 [label="JobRole <= 1.5\ngini = 0.174\nsamples = 83\nvalue = [75, 8]"] ;
164 -> 168 ;
169 [label="gini = 0.0\nsamples = 36\nvalue = [36, 0]"] ;
168 -> 169 ;
170 [label="PercentSalaryHike <= 18.0\ngini = 0.282\nsamples = 47\nvalue = [39, 8]"] ;
168 -> 170 ;
171 [label="PercentSalaryHike <= 16.5\ngini = 0.4\nsamples = 29\nvalue = [21, 8]"] ;
170 -> 171 ;
172 [label="DistanceFromHome <= 4.0\ngini = 0.287\nsamples = 23\nvalue = [19, 4]"] ;
171 -> 172 ;
173 [label="gini = 0.5\nsamples = 4\nvalue = [2, 2]"] ;
172 -> 173 ;
174 [label="gini = 0.188\nsamples = 19\nvalue = [17, 2]"] ;
172 -> 174 ;
175 [label="MonthlyIncome <= 69800.0\ngini = 0.444\nsamples = 6\nvalue = [2, 4]"] ;
171 -> 175 ;
176 [label="gini = 0.0\nsamples = 4\nvalue = [0, 4]"] ;
175 -> 176 ;
177 [label="gini = 0.0\nsamples = 2\nvalue = [2, 0]"] ;
175 -> 177 ;
178 [label="gini = 0.0\nsamples = 18\nvalue = [18, 0]"] ;
170 -> 178 ;
179 [label="gini = 0.0\nsamples = 2\nvalue = [0, 2]"] ;
161 -> 179 ;
180 [label="gini = 0.0\nsamples = 3\nvalue = [0, 3]"] ;
160 -> 180 ;
181 [label="MonthlyIncome <= 135075.0\ngini = 0.052\nsamples = 186\nvalue = [181, 5]"] ;
159 -> 181 ;
182 [label="MonthlyIncome <= 17940.0\ngini = 0.024\nsamples = 166\nvalue = [164, 2]"] ;
181 -> 182 ;
183 [label="YearsAtCompany <= 8.5\ngini = 0.444\nsamples = 3\nvalue = [2, 1]"] ;
182 -> 183 ;
184 [label="gini = 0.0\nsamples = 2\nvalue = [2, 0]"] ;
183 -> 184 ;
185 [label="gini = 0.0\nsamples = 1\nvalue = [0, 1]"] ;
183 -> 185 ;
186 [label="PercentSalaryHike <= 22.5\ngini = 0.012\nsamples = 163\nvalue = [162, 1]"] ;
182 -> 186 ;
187 [label="gini = 0.0\nsamples = 158\nvalue = [158, 0]"] ;
186 -> 187 ;
188 [label="YearsWithCurrManager <= 5.5\ngini = 0.32\nsamples = 5\nvalue = [4, 1]"] ;
186 -> 188 ;
189 [label="gini = 0.0\nsamples = 1\nvalue = [0, 1]"] ;
188 -> 189 ;
190 [label="gini = 0.0\nsamples = 4\nvalue = [4, 0]"] ;
188 -> 190 ;
191 [label="MonthlyIncome <= 167105.0\ngini = 0.255\nsamples = 20\nvalue = [17, 3]"] ;
181 -> 191 ;
192 [label="Age <= 32.5\ngini = 0.375\nsamples = 4\nvalue = [1, 3]"] ;
191 -> 192 ;
193 [label="gini = 0.0\nsamples = 3\nvalue = [0, 3]"] ;
192 -> 193 ;
194 [label="gini = 0.0\nsamples = 1\nvalue = [1, 0]"] ;
192 -> 194 ;
195 [label="gini = 0.0\nsamples = 16\nvalue = [16, 0]"] ;
191 -> 195 ;
196 [label="YearsAtCompany <= 9.5\ngini = 0.308\nsamples = 226\nvalue = [183, 43]"] ;
112 -> 196 ;
197 [label="PercentSalaryHike <= 19.5\ngini = 0.256\nsamples = 179\nvalue = [152, 27]"] ;
196 -> 197 ;
198 [label="MonthlyIncome <= 186235.0\ngini = 0.187\nsamples = 153\nvalue = [137, 16]"] ;
197 -> 198 ;
199 [label="MonthlyIncome <= 49065.0\ngini = 0.14\nsamples = 145\nvalue = [134, 11]"] ;
198 -> 199 ;
200 [label="gini = 0.0\nsamples = 77\nvalue = [77, 0]"] ;
199 -> 200 ;
201 [label="MonthlyIncome <= 51180.0\ngini = 0.271\nsamples = 68\nvalue = [57, 11]"] ;
199 -> 201 ;
202 [label="gini = 0.0\nsamples = 4\nvalue = [0, 4]"] ;
201 -> 202 ;
203 [label="Age <= 20.5\ngini = 0.195\nsamples = 64\nvalue = [57, 7]"] ;
201 -> 203 ;
204 [label="gini = 0.0\nsamples = 2\nvalue = [0, 2]"] ;
203 -> 204 ;
205 [label="MonthlyIncome <= 73285.0\ngini = 0.148\nsamples = 62\nvalue = [57, 5]"] ;
203 -> 205 ;
206 [label="MonthlyIncome <= 65400.0\ngini = 0.375\nsamples = 20\nvalue = [15, 5]"] ;
205 -> 206 ;
207 [label="gini = 0.0\nsamples = 13\nvalue = [13, 0]"] ;
206 -> 207 ;
208 [label="PercentSalaryHike <= 15.5\ngini = 0.408\nsamples = 7\nvalue = [2, 5]"] ;
206 -> 208 ;
209 [label="gini = 0.0\nsamples = 5\nvalue = [0, 5]"] ;
208 -> 209 ;
210 [label="gini = 0.0\nsamples = 2\nvalue = [2, 0]"] ;
208 -> 210 ;
211 [label="gini = 0.0\nsamples = 42\nvalue = [42, 0]"] ;
205 -> 211 ;
212 [label="Age <= 31.5\ngini = 0.469\nsamples = 8\nvalue = [3, 5]"] ;
198 -> 212 ;
213 [label="gini = 0.0\nsamples = 5\nvalue = [0, 5]"] ;
212 -> 213 ;
214 [label="gini = 0.0\nsamples = 3\nvalue = [3, 0]"] ;
212 -> 214 ;
215 [label="MonthlyIncome <= 25740.0\ngini = 0.488\nsamples = 26\nvalue = [15, 11]"] ;
197 -> 215 ;
216 [label="gini = 0.0\nsamples = 9\nvalue = [0, 9]"] ;
215 -> 216 ;
217 [label="YearsAtCompany <= 2.5\ngini = 0.208\nsamples = 17\nvalue = [15, 2]"] ;
215 -> 217 ;
218 [label="gini = 0.0\nsamples = 2\nvalue = [0, 2]"] ;
217 -> 218 ;
219 [label="gini = 0.0\nsamples = 15\nvalue = [15, 0]"] ;
217 -> 219 ;
220 [label="DistanceFromHome <= 7.0\ngini = 0.449\nsamples = 47\nvalue = [31, 16]"] ;
196 -> 220 ;
221 [label="MonthlyIncome <= 183840.0\ngini = 0.493\nsamples = 25\nvalue = [11, 14]"] ;
220 -> 221 ;
222 [label="YearsWithCurrManager <= 8.5\ngini = 0.42\nsamples = 20\nvalue = [6, 14]"] ;
221 -> 222 ;
223 [label="gini = 0.0\nsamples = 12\nvalue = [0, 12]"] ;
222 -> 223 ;
224 [label="DistanceFromHome <= 3.5\ngini = 0.375\nsamples = 8\nvalue = [6, 2]"] ;
222 -> 224 ;
225 [label="gini = 0.0\nsamples = 6\nvalue = [6, 0]"] ;
224 -> 225 ;
226 [label="gini = 0.0\nsamples = 2\nvalue = [0, 2]"] ;
224 -> 226 ;
227 [label="gini = 0.0\nsamples = 5\nvalue = [5, 0]"] ;
221 -> 227 ;
228 [label="DistanceFromHome <= 12.5\ngini = 0.165\nsamples = 22\nvalue = [20, 2]"] ;
220 -> 228 ;
229 [label="gini = 0.0\nsamples = 15\nvalue = [15, 0]"] ;
228 -> 229 ;
230 [label="Age <= 30.0\ngini = 0.408\nsamples = 7\nvalue = [5, 2]"] ;
228 -> 230 ;
231 [label="gini = 0.0\nsamples = 3\nvalue = [3, 0]"] ;
230 -> 231 ;
232 [label="YearsWithCurrManager <= 7.5\ngini = 0.5\nsamples = 4\nvalue = [2, 2]"] ;
230 -> 232 ;
233 [label="gini = 0.0\nsamples = 2\nvalue = [0, 2]"] ;
232 -> 233 ;
234 [label="gini = 0.0\nsamples = 2\nvalue = [2, 0]"] ;
232 -> 234 ;
235 [label="gini = 0.0\nsamples = 2\nvalue = [0, 2]"] ;
111 -> 235 ;
236 [label="NumCompaniesWorked <= 2.5\ngini = 0.432\nsamples = 57\nvalue = [39, 18]"] ;
110 -> 236 ;
237 [label="TotalWorkingYears <= 7.5\ngini = 0.36\nsamples = 51\nvalue = [39, 12]"] ;
236 -> 237 ;
238 [label="MonthlyIncome <= 28310.0\ngini = 0.485\nsamples = 29\nvalue = [17, 12]"] ;
237 -> 238 ;
239 [label="gini = 0.0\nsamples = 8\nvalue = [0, 8]"] ;
238 -> 239 ;
240 [label="YearsAtCompany <= 4.5\ngini = 0.308\nsamples = 21\nvalue = [17, 4]"] ;
238 -> 240 ;
241 [label="gini = 0.0\nsamples = 14\nvalue = [14, 0]"] ;
240 -> 241 ;
242 [label="Age <= 27.0\ngini = 0.49\nsamples = 7\nvalue = [3, 4]"] ;
240 -> 242 ;
243 [label="gini = 0.0\nsamples = 4\nvalue = [0, 4]"] ;
242 -> 243 ;
244 [label="gini = 0.0\nsamples = 3\nvalue = [3, 0]"] ;
242 -> 244 ;
245 [label="gini = 0.0\nsamples = 22\nvalue = [22, 0]"] ;
237 -> 245 ;
246 [label="gini = 0.0\nsamples = 6\nvalue = [0, 6]"] ;
236 -> 246 ;
247 [label="YearsAtCompany <= 38.5\ngini = 0.129\nsamples = 1212\nvalue = [1128, 84]"] ;
109 -> 247 ;
248 [label="MonthlyIncome <= 63480.0\ngini = 0.126\nsamples = 1210\nvalue = [1128, 82]"] ;
247 -> 248 ;
249 [label="MonthlyIncome <= 62665.0\ngini = 0.161\nsamples = 782\nvalue = [713, 69]"] ;
248 -> 249 ;
250 [label="MonthlyIncome <= 43020.0\ngini = 0.146\nsamples = 769\nvalue = [708, 61]"] ;
249 -> 250 ;
251 [label="YearsAtCompany <= 31.5\ngini = 0.098\nsamples = 482\nvalue = [457, 25]"] ;
250 -> 251 ;
252 [label="TotalWorkingYears <= 6.5\ngini = 0.086\nsamples = 465\nvalue = [444, 21]"] ;
251 -> 252 ;
253 [label="JobRole <= 0.5\ngini = 0.209\nsamples = 59\nvalue = [52, 7]"] ;
252 -> 253 ;
254 [label="gini = 0.0\nsamples = 2\nvalue = [0, 2]"] ;
253 -> 254 ;
255 [label="PercentSalaryHike <= 19.5\ngini = 0.16\nsamples = 57\nvalue = [52, 5]"] ;
253 -> 255 ;
256 [label="TotalWorkingYears <= 2.5\ngini = 0.075\nsamples = 51\nvalue = [49, 2]"] ;
255 -> 256 ;
257 [label="MonthlyIncome <= 24760.0\ngini = 0.375\nsamples = 4\nvalue = [3, 1]"] ;
256 -> 257 ;
258 [label="gini = 0.0\nsamples = 3\nvalue = [3, 0]"] ;
257 -> 258 ;
259 [label="gini = 0.0\nsamples = 1\nvalue = [0, 1]"] ;
257 -> 259 ;
260 [label="Age <= 43.5\ngini = 0.042\nsamples = 47\nvalue = [46, 1]"] ;
256 -> 260 ;
261 [label="gini = 0.0\nsamples = 43\nvalue = [43, 0]"] ;
260 -> 261 ;
262 [label="YearsAtCompany <= 4.5\ngini = 0.375\nsamples = 4\nvalue = [3, 1]"] ;
260 -> 262 ;
263 [label="gini = 0.0\nsamples = 3\nvalue = [3, 0]"] ;
262 -> 263 ;
264 [label="gini = 0.0\nsamples = 1\nvalue = [0, 1]"] ;
262 -> 264 ;
265 [label="PercentSalaryHike <= 22.0\ngini = 0.5\nsamples = 6\nvalue = [3, 3]"] ;
255 -> 265 ;
266 [label="gini = 0.0\nsamples = 3\nvalue = [0, 3]"] ;
265 -> 266 ;
267 [label="gini = 0.0\nsamples = 3\nvalue = [3, 0]"] ;
265 -> 267 ;
268 [label="MonthlyIncome <= 19275.0\ngini = 0.067\nsamples = 406\nvalue = [392, 14]"] ;
252 -> 268 ;
269 [label="MonthlyIncome <= 17525.0\ngini = 0.337\nsamples = 14\nvalue = [11, 3]"] ;
268 -> 269 ;
270 [label="TotalWorkingYears <= 17.5\ngini = 0.153\nsamples = 12\nvalue = [11, 1]"] ;
269 -> 270 ;
271 [label="gini = 0.0\nsamples = 11\nvalue = [11, 0]"] ;
270 -> 271 ;
272 [label="gini = 0.0\nsamples = 1\nvalue = [0, 1]"] ;
270 -> 272 ;
273 [label="gini = 0.0\nsamples = 2\nvalue = [0, 2]"] ;
269 -> 273 ;
274 [label="YearsWithCurrManager <= 13.5\ngini = 0.055\nsamples = 392\nvalue = [381, 11]"] ;
268 -> 274 ;
275 [label="TotalWorkingYears <= 11.5\ngini = 0.042\nsamples = 376\nvalue = [368, 8]"] ;
274 -> 275 ;
276 [label="Age <= 46.0\ngini = 0.079\nsamples = 145\nvalue = [139, 6]"] ;
275 -> 276 ;
277 [label="MonthlyIncome <= 36165.0\ngini = 0.057\nsamples = 137\nvalue = [133, 4]"] ;
276 -> 277 ;
278 [label="PercentSalaryHike <= 11.5\ngini = 0.018\nsamples = 109\nvalue = [108, 1]"] ;
277 -> 278 ;
279 [label="TotalWorkingYears <= 8.5\ngini = 0.18\nsamples = 10\nvalue = [9, 1]"] ;
278 -> 279 ;
280 [label="gini = 0.0\nsamples = 1\nvalue = [0, 1]"] ;
279 -> 280 ;
281 [label="gini = 0.0\nsamples = 9\nvalue = [9, 0]"] ;
279 -> 281 ;
282 [label="gini = 0.0\nsamples = 99\nvalue = [99, 0]"] ;
278 -> 282 ;
283 [label="MonthlyIncome <= 37250.0\ngini = 0.191\nsamples = 28\nvalue = [25, 3]"] ;
277 -> 283 ;
284 [label="JobRole <= 5.5\ngini = 0.48\nsamples = 5\nvalue = [2, 3]"] ;
283 -> 284 ;
285 [label="gini = 0.0\nsamples = 3\nvalue = [0, 3]"] ;
284 -> 285 ;
286 [label="gini = 0.0\nsamples = 2\nvalue = [2, 0]"] ;
284 -> 286 ;
287 [label="gini = 0.0\nsamples = 23\nvalue = [23, 0]"] ;
283 -> 287 ;
288 [label="DistanceFromHome <= 4.5\ngini = 0.375\nsamples = 8\nvalue = [6, 2]"] ;
276 -> 288 ;
289 [label="YearsWithCurrManager <= 5.5\ngini = 0.444\nsamples = 3\nvalue = [1, 2]"] ;
288 -> 289 ;
290 [label="gini = 0.0\nsamples = 2\nvalue = [0, 2]"] ;
289 -> 290 ;
291 [label="gini = 0.0\nsamples = 1\nvalue = [1, 0]"] ;
289 -> 291 ;
292 [label="gini = 0.0\nsamples = 5\nvalue = [5, 0]"] ;
288 -> 292 ;
293 [label="MonthlyIncome <= 23560.0\ngini = 0.017\nsamples = 231\nvalue = [229, 2]"] ;
275 -> 293 ;
294 [label="MonthlyIncome <= 23410.0\ngini = 0.078\nsamples = 49\nvalue = [47, 2]"] ;
293 -> 294 ;
295 [label="Age <= 36.5\ngini = 0.041\nsamples = 48\nvalue = [47, 1]"] ;
294 -> 295 ;
296 [label="MonthlyIncome <= 21945.0\ngini = 0.444\nsamples = 3\nvalue = [2, 1]"] ;
295 -> 296 ;
297 [label="gini = 0.0\nsamples = 2\nvalue = [2, 0]"] ;
296 -> 297 ;
298 [label="gini = 0.0\nsamples = 1\nvalue = [0, 1]"] ;
296 -> 298 ;
299 [label="gini = 0.0\nsamples = 45\nvalue = [45, 0]"] ;
295 -> 299 ;
300 [label="gini = 0.0\nsamples = 1\nvalue = [0, 1]"] ;
294 -> 300 ;
301 [label="gini = 0.0\nsamples = 182\nvalue = [182, 0]"] ;
293 -> 301 ;
302 [label="MonthlyIncome <= 23150.0\ngini = 0.305\nsamples = 16\nvalue = [13, 3]"] ;
274 -> 302 ;
303 [label="gini = 0.0\nsamples = 3\nvalue = [0, 3]"] ;
302 -> 303 ;
304 [label="gini = 0.0\nsamples = 13\nvalue = [13, 0]"] ;
302 -> 304 ;
305 [label="MonthlyIncome <= 26260.0\ngini = 0.36\nsamples = 17\nvalue = [13, 4]"] ;
251 -> 305 ;
306 [label="TotalWorkingYears <= 32.5\ngini = 0.444\nsamples = 6\nvalue = [2, 4]"] ;
305 -> 306 ;
307 [label="gini = 0.0\nsamples = 2\nvalue = [2, 0]"] ;
306 -> 307 ;
308 [label="gini = 0.0\nsamples = 4\nvalue = [0, 4]"] ;
306 -> 308 ;
309 [label="gini = 0.0\nsamples = 11\nvalue = [11, 0]"] ;
305 -> 309 ;
310 [label="PercentSalaryHike <= 11.5\ngini = 0.219\nsamples = 287\nvalue = [251, 36]"] ;
250 -> 310 ;
311 [label="DistanceFromHome <= 9.5\ngini = 0.444\nsamples = 54\nvalue = [36, 18]"] ;
310 -> 311 ;
312 [label="YearsWithCurrManager <= 8.0\ngini = 0.124\nsamples = 30\nvalue = [28, 2]"] ;
311 -> 312 ;
313 [label="gini = 0.0\nsamples = 25\nvalue = [25, 0]"] ;
312 -> 313 ;
314 [label="DistanceFromHome <= 1.5\ngini = 0.48\nsamples = 5\nvalue = [3, 2]"] ;
312 -> 314 ;
315 [label="gini = 0.0\nsamples = 2\nvalue = [0, 2]"] ;
314 -> 315 ;
316 [label="gini = 0.0\nsamples = 3\nvalue = [3, 0]"] ;
314 -> 316 ;
317 [label="MonthlyIncome <= 45195.0\ngini = 0.444\nsamples = 24\nvalue = [8, 16]"] ;
311 -> 317 ;
318 [label="gini = 0.0\nsamples = 9\nvalue = [0, 9]"] ;
317 -> 318 ;
319 [label="MonthlyIncome <= 48890.0\ngini = 0.498\nsamples = 15\nvalue = [8, 7]"] ;
317 -> 319 ;
320 [label="gini = 0.0\nsamples = 6\nvalue = [6, 0]"] ;
319 -> 320 ;
321 [label="DistanceFromHome <= 23.0\ngini = 0.346\nsamples = 9\nvalue = [2, 7]"] ;
319 -> 321 ;
322 [label="MonthlyIncome <= 53400.0\ngini = 0.219\nsamples = 8\nvalue = [1, 7]"] ;
321 -> 322 ;
323 [label="YearsAtCompany <= 6.0\ngini = 0.444\nsamples = 3\nvalue = [1, 2]"] ;
322 -> 323 ;
324 [label="gini = 0.0\nsamples = 2\nvalue = [0, 2]"] ;
323 -> 324 ;
325 [label="gini = 0.0\nsamples = 1\nvalue = [1, 0]"] ;
323 -> 325 ;
326 [label="gini = 0.0\nsamples = 5\nvalue = [0, 5]"] ;
322 -> 326 ;
327 [label="gini = 0.0\nsamples = 1\nvalue = [1, 0]"] ;
321 -> 327 ;
328 [label="PercentSalaryHike <= 23.5\ngini = 0.143\nsamples = 233\nvalue = [215, 18]"] ;
310 -> 328 ;
329 [label="TotalWorkingYears <= 9.5\ngini = 0.122\nsamples = 230\nvalue = [215, 15]"] ;
328 -> 329 ;
330 [label="JobRole <= 6.5\ngini = 0.299\nsamples = 60\nvalue = [49, 11]"] ;
329 -> 330 ;
331 [label="JobRole <= 1.0\ngini = 0.054\nsamples = 36\nvalue = [35, 1]"] ;
330 -> 331 ;
332 [label="Age <= 38.0\ngini = 0.32\nsamples = 5\nvalue = [4, 1]"] ;
331 -> 332 ;
333 [label="gini = 0.0\nsamples = 1\nvalue = [0, 1]"] ;
332 -> 333 ;
334 [label="gini = 0.0\nsamples = 4\nvalue = [4, 0]"] ;
332 -> 334 ;
335 [label="gini = 0.0\nsamples = 31\nvalue = [31, 0]"] ;
331 -> 335 ;
336 [label="DistanceFromHome <= 11.5\ngini = 0.486\nsamples = 24\nvalue = [14, 10]"] ;
330 -> 336 ;
337 [label="Age <= 44.5\ngini = 0.408\nsamples = 14\nvalue = [4, 10]"] ;
336 -> 337 ;
338 [label="gini = 0.0\nsamples = 10\nvalue = [0, 10]"] ;
337 -> 338 ;
339 [label="gini = 0.0\nsamples = 4\nvalue = [4, 0]"] ;
337 -> 339 ;
340 [label="gini = 0.0\nsamples = 10\nvalue = [10, 0]"] ;
336 -> 340 ;
341 [label="Age <= 49.5\ngini = 0.046\nsamples = 170\nvalue = [166, 4]"] ;
329 -> 341 ;
342 [label="gini = 0.0\nsamples = 133\nvalue = [133, 0]"] ;
341 -> 342 ;
343 [label="TotalWorkingYears <= 12.0\ngini = 0.193\nsamples = 37\nvalue = [33, 4]"] ;
341 -> 343 ;
344 [label="gini = 0.0\nsamples = 3\nvalue = [0, 3]"] ;
343 -> 344 ;
345 [label="JobRole <= 7.5\ngini = 0.057\nsamples = 34\nvalue = [33, 1]"] ;
343 -> 345 ;
346 [label="gini = 0.0\nsamples = 33\nvalue = [33, 0]"] ;
345 -> 346 ;
347 [label="gini = 0.0\nsamples = 1\nvalue = [0, 1]"] ;
345 -> 347 ;
348 [label="gini = 0.0\nsamples = 3\nvalue = [0, 3]"] ;
328 -> 348 ;
349 [label="TotalWorkingYears <= 21.5\ngini = 0.473\nsamples = 13\nvalue = [5, 8]"] ;
249 -> 349 ;
350 [label="DistanceFromHome <= 22.0\ngini = 0.198\nsamples = 9\nvalue = [1, 8]"] ;
349 -> 350 ;
351 [label="gini = 0.0\nsamples = 8\nvalue = [0, 8]"] ;
350 -> 351 ;
352 [label="gini = 0.0\nsamples = 1\nvalue = [1, 0]"] ;
350 -> 352 ;
353 [label="gini = 0.0\nsamples = 4\nvalue = [4, 0]"] ;
349 -> 353 ;
354 [label="YearsAtCompany <= 1.5\ngini = 0.059\nsamples = 428\nvalue = [415, 13]"] ;
248 -> 354 ;
355 [label="gini = 0.0\nsamples = 1\nvalue = [0, 1]"] ;
354 -> 355 ;
356 [label="PercentSalaryHike <= 21.5\ngini = 0.055\nsamples = 427\nvalue = [415, 12]"] ;
354 -> 356 ;
357 [label="DistanceFromHome <= 23.5\ngini = 0.035\nsamples = 389\nvalue = [382, 7]"] ;
356 -> 357 ;
358 [label="MonthlyIncome <= 102285.0\ngini = 0.023\nsamples = 344\nvalue = [340, 4]"] ;
357 -> 358 ;
359 [label="MonthlyIncome <= 101665.0\ngini = 0.047\nsamples = 165\nvalue = [161, 4]"] ;
358 -> 359 ;
360 [label="TotalWorkingYears <= 9.5\ngini = 0.036\nsamples = 164\nvalue = [161, 3]"] ;
359 -> 360 ;
361 [label="Age <= 34.5\ngini = 0.097\nsamples = 59\nvalue = [56, 3]"] ;
360 -> 361 ;
362 [label="JobRole <= 7.0\ngini = 0.444\nsamples = 3\nvalue = [2, 1]"] ;
361 -> 362 ;
363 [label="gini = 0.0\nsamples = 1\nvalue = [0, 1]"] ;
362 -> 363 ;
364 [label="gini = 0.0\nsamples = 2\nvalue = [2, 0]"] ;
362 -> 364 ;
365 [label="JobRole <= 0.5\ngini = 0.069\nsamples = 56\nvalue = [54, 2]"] ;
361 -> 365 ;
366 [label="YearsWithCurrManager <= 4.5\ngini = 0.375\nsamples = 4\nvalue = [3, 1]"] ;
365 -> 366 ;
367 [label="gini = 0.0\nsamples = 3\nvalue = [3, 0]"] ;
366 -> 367 ;
368 [label="gini = 0.0\nsamples = 1\nvalue = [0, 1]"] ;
366 -> 368 ;
369 [label="DistanceFromHome <= 1.5\ngini = 0.038\nsamples = 52\nvalue = [51, 1]"] ;
365 -> 369 ;
370 [label="Age <= 37.5\ngini = 0.219\nsamples = 8\nvalue = [7, 1]"] ;
369 -> 370 ;
371 [label="NumCompaniesWorked <= 0.5\ngini = 0.444\nsamples = 3\nvalue = [2, 1]"] ;
370 -> 371 ;
372 [label="gini = 0.0\nsamples = 1\nvalue = [0, 1]"] ;
371 -> 372 ;
373 [label="gini = 0.0\nsamples = 2\nvalue = [2, 0]"] ;
371 -> 373 ;
374 [label="gini = 0.0\nsamples = 5\nvalue = [5, 0]"] ;
370 -> 374 ;
375 [label="gini = 0.0\nsamples = 44\nvalue = [44, 0]"] ;
369 -> 375 ;
376 [label="gini = 0.0\nsamples = 105\nvalue = [105, 0]"] ;
360 -> 376 ;
377 [label="gini = 0.0\nsamples = 1\nvalue = [0, 1]"] ;
359 -> 377 ;
378 [label="gini = 0.0\nsamples = 179\nvalue = [179, 0]"] ;
358 -> 378 ;
379 [label="DistanceFromHome <= 24.5\ngini = 0.124\nsamples = 45\nvalue = [42, 3]"] ;
357 -> 379 ;
380 [label="YearsAtCompany <= 7.0\ngini = 0.469\nsamples = 8\nvalue = [5, 3]"] ;
379 -> 380 ;
381 [label="gini = 0.0\nsamples = 5\nvalue = [5, 0]"] ;
380 -> 381 ;
382 [label="gini = 0.0\nsamples = 3\nvalue = [0, 3]"] ;
380 -> 382 ;
383 [label="gini = 0.0\nsamples = 37\nvalue = [37, 0]"] ;
379 -> 383 ;
384 [label="DistanceFromHome <= 3.0\ngini = 0.229\nsamples = 38\nvalue = [33, 5]"] ;
356 -> 384 ;
385 [label="MonthlyIncome <= 135545.0\ngini = 0.473\nsamples = 13\nvalue = [8, 5]"] ;
384 -> 385 ;
386 [label="YearsAtCompany <= 9.5\ngini = 0.408\nsamples = 7\nvalue = [2, 5]"] ;
385 -> 386 ;
387 [label="gini = 0.0\nsamples = 5\nvalue = [0, 5]"] ;
386 -> 387 ;
388 [label="gini = 0.0\nsamples = 2\nvalue = [2, 0]"] ;
386 -> 388 ;
389 [label="gini = 0.0\nsamples = 6\nvalue = [6, 0]"] ;
385 -> 389 ;
390 [label="gini = 0.0\nsamples = 25\nvalue = [25, 0]"] ;
384 -> 390 ;
391 [label="gini = 0.0\nsamples = 2\nvalue = [0, 2]"] ;
247 -> 391 ;
392 [label="Age <= 33.5\ngini = 0.341\nsamples = 629\nvalue = [492, 137]"] ;
54 -> 392 ;
393 [label="NumCompaniesWorked <= 7.5\ngini = 0.476\nsamples = 172\nvalue = [105, 67]"] ;
392 -> 393 ;
394 [label="YearsAtCompany <= 7.5\ngini = 0.5\nsamples = 114\nvalue = [56, 58]"] ;
393 -> 394 ;
395 [label="YearsWithCurrManager <= 3.5\ngini = 0.493\nsamples = 100\nvalue = [44, 56]"] ;
394 -> 395 ;
396 [label="PercentSalaryHike <= 16.5\ngini = 0.5\nsamples = 87\nvalue = [43, 44]"] ;
395 -> 396 ;
397 [label="MonthlyIncome <= 182710.0\ngini = 0.474\nsamples = 57\nvalue = [22, 35]"] ;
396 -> 397 ;
398 [label="Age <= 29.5\ngini = 0.44\nsamples = 52\nvalue = [17, 35]"] ;
397 -> 398 ;
399 [label="JobRole <= 1.0\ngini = 0.271\nsamples = 31\nvalue = [5, 26]"] ;
398 -> 399 ;
400 [label="gini = 0.0\nsamples = 4\nvalue = [4, 0]"] ;
399 -> 400 ;
401 [label="YearsWithCurrManager <= 0.5\ngini = 0.071\nsamples = 27\nvalue = [1, 26]"] ;
399 -> 401 ;
402 [label="Age <= 27.5\ngini = 0.32\nsamples = 5\nvalue = [1, 4]"] ;
401 -> 402 ;
403 [label="gini = 0.0\nsamples = 1\nvalue = [1, 0]"] ;
402 -> 403 ;
404 [label="gini = 0.0\nsamples = 4\nvalue = [0, 4]"] ;
402 -> 404 ;
405 [label="gini = 0.0\nsamples = 22\nvalue = [0, 22]"] ;
401 -> 405 ;
406 [label="DistanceFromHome <= 20.5\ngini = 0.49\nsamples = 21\nvalue = [12, 9]"] ;
398 -> 406 ;
407 [label="YearsAtCompany <= 5.5\ngini = 0.375\nsamples = 16\nvalue = [12, 4]"] ;
406 -> 407 ;
408 [label="PercentSalaryHike <= 11.5\ngini = 0.245\nsamples = 14\nvalue = [12, 2]"] ;
407 -> 408 ;
409 [label="gini = 0.0\nsamples = 2\nvalue = [0, 2]"] ;
408 -> 409 ;
410 [label="gini = 0.0\nsamples = 12\nvalue = [12, 0]"] ;
408 -> 410 ;
411 [label="gini = 0.0\nsamples = 2\nvalue = [0, 2]"] ;
407 -> 411 ;
412 [label="gini = 0.0\nsamples = 5\nvalue = [0, 5]"] ;
406 -> 412 ;
413 [label="gini = 0.0\nsamples = 5\nvalue = [5, 0]"] ;
397 -> 413 ;
414 [label="PercentSalaryHike <= 22.5\ngini = 0.42\nsamples = 30\nvalue = [21, 9]"] ;
396 -> 414 ;
415 [label="TotalWorkingYears <= 3.5\ngini = 0.311\nsamples = 26\nvalue = [21, 5]"] ;
414 -> 415 ;
416 [label="gini = 0.0\nsamples = 2\nvalue = [0, 2]"] ;
415 -> 416 ;
417 [label="DistanceFromHome <= 12.5\ngini = 0.219\nsamples = 24\nvalue = [21, 3]"] ;
415 -> 417 ;
418 [label="gini = 0.0\nsamples = 18\nvalue = [18, 0]"] ;
417 -> 418 ;
419 [label="JobRole <= 1.0\ngini = 0.5\nsamples = 6\nvalue = [3, 3]"] ;
417 -> 419 ;
420 [label="gini = 0.0\nsamples = 3\nvalue = [3, 0]"] ;
419 -> 420 ;
421 [label="gini = 0.0\nsamples = 3\nvalue = [0, 3]"] ;
419 -> 421 ;
422 [label="gini = 0.0\nsamples = 4\nvalue = [0, 4]"] ;
414 -> 422 ;
423 [label="JobRole <= 2.5\ngini = 0.142\nsamples = 13\nvalue = [1, 12]"] ;
395 -> 423 ;
424 [label="gini = 0.0\nsamples = 1\nvalue = [1, 0]"] ;
423 -> 424 ;
425 [label="gini = 0.0\nsamples = 12\nvalue = [0, 12]"] ;
423 -> 425 ;
426 [label="Age <= 29.5\ngini = 0.245\nsamples = 14\nvalue = [12, 2]"] ;
394 -> 426 ;
427 [label="gini = 0.0\nsamples = 2\nvalue = [0, 2]"] ;
426 -> 427 ;
428 [label="gini = 0.0\nsamples = 12\nvalue = [12, 0]"] ;
426 -> 428 ;
429 [label="PercentSalaryHike <= 18.5\ngini = 0.262\nsamples = 58\nvalue = [49, 9]"] ;
393 -> 429 ;
430 [label="DistanceFromHome <= 20.5\ngini = 0.045\nsamples = 43\nvalue = [42, 1]"] ;
429 -> 430 ;
431 [label="gini = 0.0\nsamples = 40\nvalue = [40, 0]"] ;
430 -> 431 ;
432 [label="MonthlyIncome <= 89725.0\ngini = 0.444\nsamples = 3\nvalue = [2, 1]"] ;
430 -> 432 ;
433 [label="gini = 0.0\nsamples = 2\nvalue = [2, 0]"] ;
432 -> 433 ;
434 [label="gini = 0.0\nsamples = 1\nvalue = [0, 1]"] ;
432 -> 434 ;
435 [label="TotalWorkingYears <= 7.0\ngini = 0.498\nsamples = 15\nvalue = [7, 8]"] ;
429 -> 435 ;
436 [label="JobRole <= 4.5\ngini = 0.397\nsamples = 11\nvalue = [3, 8]"] ;
435 -> 436 ;
437 [label="gini = 0.0\nsamples = 3\nvalue = [3, 0]"] ;
436 -> 437 ;
438 [label="gini = 0.0\nsamples = 8\nvalue = [0, 8]"] ;
436 -> 438 ;
439 [label="gini = 0.0\nsamples = 4\nvalue = [4, 0]"] ;
435 -> 439 ;
440 [label="MonthlyIncome <= 21955.0\ngini = 0.259\nsamples = 457\nvalue = [387, 70]"] ;
392 -> 440 ;
441 [label="NumCompaniesWorked <= 6.5\ngini = 0.5\nsamples = 26\nvalue = [13, 13]"] ;
440 -> 441 ;
442 [label="gini = 0.0\nsamples = 10\nvalue = [10, 0]"] ;
441 -> 442 ;
443 [label="JobRole <= 4.0\ngini = 0.305\nsamples = 16\nvalue = [3, 13]"] ;
441 -> 443 ;
444 [label="gini = 0.0\nsamples = 3\nvalue = [3, 0]"] ;
443 -> 444 ;
445 [label="gini = 0.0\nsamples = 13\nvalue = [0, 13]"] ;
443 -> 445 ;
446 [label="MonthlyIncome <= 191605.0\ngini = 0.23\nsamples = 431\nvalue = [374, 57]"] ;
440 -> 446 ;
447 [label="YearsAtCompany <= 30.0\ngini = 0.21\nsamples = 420\nvalue = [370, 50]"] ;
446 -> 447 ;
448 [label="YearsAtCompany <= 2.5\ngini = 0.203\nsamples = 418\nvalue = [370, 48]"] ;
447 -> 448 ;
449 [label="JobRole <= 6.5\ngini = 0.34\nsamples = 106\nvalue = [83, 23]"] ;
448 -> 449 ;
450 [label="Age <= 39.5\ngini = 0.272\nsamples = 80\nvalue = [67, 13]"] ;
449 -> 450 ;
451 [label="PercentSalaryHike <= 11.5\ngini = 0.459\nsamples = 28\nvalue = [18, 10]"] ;
450 -> 451 ;
452 [label="gini = 0.0\nsamples = 5\nvalue = [0, 5]"] ;
451 -> 452 ;
453 [label="NumCompaniesWorked <= 7.5\ngini = 0.34\nsamples = 23\nvalue = [18, 5]"] ;
451 -> 453 ;
454 [label="TotalWorkingYears <= 8.0\ngini = 0.486\nsamples = 12\nvalue = [7, 5]"] ;
453 -> 454 ;
455 [label="gini = 0.0\nsamples = 4\nvalue = [4, 0]"] ;
454 -> 455 ;
456 [label="MonthlyIncome <= 28765.0\ngini = 0.469\nsamples = 8\nvalue = [3, 5]"] ;
454 -> 456 ;
457 [label="gini = 0.0\nsamples = 2\nvalue = [2, 0]"] ;
456 -> 457 ;
458 [label="DistanceFromHome <= 15.5\ngini = 0.278\nsamples = 6\nvalue = [1, 5]"] ;
456 -> 458 ;
459 [label="gini = 0.0\nsamples = 5\nvalue = [0, 5]"] ;
458 -> 459 ;
460 [label="gini = 0.0\nsamples = 1\nvalue = [1, 0]"] ;
458 -> 460 ;
461 [label="gini = 0.0\nsamples = 11\nvalue = [11, 0]"] ;
453 -> 461 ;
462 [label="DistanceFromHome <= 15.5\ngini = 0.109\nsamples = 52\nvalue = [49, 3]"] ;
450 -> 462 ;
463 [label="gini = 0.0\nsamples = 43\nvalue = [43, 0]"] ;
462 -> 463 ;
464 [label="YearsAtCompany <= 1.5\ngini = 0.444\nsamples = 9\nvalue = [6, 3]"] ;
462 -> 464 ;
465 [label="gini = 0.0\nsamples = 6\nvalue = [6, 0]"] ;
464 -> 465 ;
466 [label="gini = 0.0\nsamples = 3\nvalue = [0, 3]"] ;
464 -> 466 ;
467 [label="DistanceFromHome <= 2.5\ngini = 0.473\nsamples = 26\nvalue = [16, 10]"] ;
449 -> 467 ;
468 [label="gini = 0.0\nsamples = 7\nvalue = [0, 7]"] ;
467 -> 468 ;
469 [label="PercentSalaryHike <= 20.5\ngini = 0.266\nsamples = 19\nvalue = [16, 3]"] ;
467 -> 469 ;
470 [label="gini = 0.0\nsamples = 16\nvalue = [16, 0]"] ;
469 -> 470 ;
471 [label="gini = 0.0\nsamples = 3\nvalue = [0, 3]"] ;
469 -> 471 ;
472 [label="PercentSalaryHike <= 24.5\ngini = 0.147\nsamples = 312\nvalue = [287, 25]"] ;
448 -> 472 ;
473 [label="JobRole <= 2.5\ngini = 0.129\nsamples = 302\nvalue = [281, 21]"] ;
472 -> 473 ;
474 [label="MonthlyIncome <= 23315.0\ngini = 0.222\nsamples = 126\nvalue = [110, 16]"] ;
473 -> 474 ;
475 [label="gini = 0.0\nsamples = 3\nvalue = [0, 3]"] ;
474 -> 475 ;
476 [label="Age <= 49.0\ngini = 0.189\nsamples = 123\nvalue = [110, 13]"] ;
474 -> 476 ;
477 [label="YearsAtCompany <= 13.5\ngini = 0.065\nsamples = 89\nvalue = [86, 3]"] ;
476 -> 477 ;
478 [label="gini = 0.0\nsamples = 71\nvalue = [71, 0]"] ;
477 -> 478 ;
479 [label="YearsAtCompany <= 15.0\ngini = 0.278\nsamples = 18\nvalue = [15, 3]"] ;
477 -> 479 ;
480 [label="gini = 0.0\nsamples = 2\nvalue = [0, 2]"] ;
479 -> 480 ;
481 [label="DistanceFromHome <= 1.5\ngini = 0.117\nsamples = 16\nvalue = [15, 1]"] ;
479 -> 481 ;
482 [label="gini = 0.0\nsamples = 1\nvalue = [0, 1]"] ;
481 -> 482 ;
483 [label="gini = 0.0\nsamples = 15\nvalue = [15, 0]"] ;
481 -> 483 ;
484 [label="YearsWithCurrManager <= 1.5\ngini = 0.415\nsamples = 34\nvalue = [24, 10]"] ;
476 -> 484 ;
485 [label="gini = 0.0\nsamples = 3\nvalue = [0, 3]"] ;
484 -> 485 ;
486 [label="PercentSalaryHike <= 18.5\ngini = 0.35\nsamples = 31\nvalue = [24, 7]"] ;
484 -> 486 ;
487 [label="TotalWorkingYears <= 23.0\ngini = 0.245\nsamples = 28\nvalue = [24, 4]"] ;
486 -> 487 ;
488 [label="gini = 0.0\nsamples = 20\nvalue = [20, 0]"] ;
487 -> 488 ;
489 [label="NumCompaniesWorked <= 6.5\ngini = 0.5\nsamples = 8\nvalue = [4, 4]"] ;
487 -> 489 ;
490 [label="gini = 0.0\nsamples = 4\nvalue = [0, 4]"] ;
489 -> 490 ;
491 [label="gini = 0.0\nsamples = 4\nvalue = [4, 0]"] ;
489 -> 491 ;
492 [label="gini = 0.0\nsamples = 3\nvalue = [0, 3]"] ;
486 -> 492 ;
493 [label="TotalWorkingYears <= 14.5\ngini = 0.055\nsamples = 176\nvalue = [171, 5]"] ;
473 -> 493 ;
494 [label="PercentSalaryHike <= 23.0\ngini = 0.128\nsamples = 73\nvalue = [68, 5]"] ;
493 -> 494 ;
495 [label="DistanceFromHome <= 1.5\ngini = 0.105\nsamples = 72\nvalue = [68, 4]"] ;
494 -> 495 ;
496 [label="MonthlyIncome <= 47150.0\ngini = 0.375\nsamples = 8\nvalue = [6, 2]"] ;
495 -> 496 ;
497 [label="gini = 0.0\nsamples = 6\nvalue = [6, 0]"] ;
496 -> 497 ;
498 [label="gini = 0.0\nsamples = 2\nvalue = [0, 2]"] ;
496 -> 498 ;
499 [label="NumCompaniesWorked <= 7.5\ngini = 0.061\nsamples = 64\nvalue = [62, 2]"] ;
495 -> 499 ;
500 [label="gini = 0.0\nsamples = 45\nvalue = [45, 0]"] ;
499 -> 500 ;
501 [label="NumCompaniesWorked <= 8.5\ngini = 0.188\nsamples = 19\nvalue = [17, 2]"] ;
499 -> 501 ;
502 [label="PercentSalaryHike <= 13.5\ngini = 0.408\nsamples = 7\nvalue = [5, 2]"] ;
501 -> 502 ;
503 [label="gini = 0.0\nsamples = 5\nvalue = [5, 0]"] ;
502 -> 503 ;
504 [label="gini = 0.0\nsamples = 2\nvalue = [0, 2]"] ;
502 -> 504 ;
505 [label="gini = 0.0\nsamples = 12\nvalue = [12, 0]"] ;
501 -> 505 ;
506 [label="gini = 0.0\nsamples = 1\nvalue = [0, 1]"] ;
494 -> 506 ;
507 [label="gini = 0.0\nsamples = 103\nvalue = [103, 0]"] ;
493 -> 507 ;
508 [label="JobRole <= 5.5\ngini = 0.48\nsamples = 10\nvalue = [6, 4]"] ;
472 -> 508 ;
509 [label="gini = 0.0\nsamples = 6\nvalue = [6, 0]"] ;
508 -> 509 ;
510 [label="gini = 0.0\nsamples = 4\nvalue = [0, 4]"] ;
508 -> 510 ;
511 [label="gini = 0.0\nsamples = 2\nvalue = [0, 2]"] ;
447 -> 511 ;
512 [label="MonthlyIncome <= 197360.0\ngini = 0.463\nsamples = 11\nvalue = [4, 7]"] ;
446 -> 512 ;
513 [label="gini = 0.0\nsamples = 7\nvalue = [0, 7]"] ;
512 -> 513 ;
514 [label="gini = 0.0\nsamples = 4\nvalue = [4, 0]"] ;
512 -> 514 ;
}